24 128
a -0.0005261306 -7.215086e-05 0.0012697953 0.0022624035 0.0011515997 -0.0023321197 -0.00053068716 0.0027141618 0.0019280966 -0.0028857486 -0.0006719385 0.0015815516 0.0022538672 0.0006229398 0.0021973257 -0.0021349185 0.001352018 0.000607636 -0.001564056 -0.00062131847 -0.0010033151 0.0032246565 -0.00096411316 -0.0021400019 -0.0018353523 0.0031805285 -0.0024003081 -0.0013568249 -0.003695041 -0.002076931 0.0020641147 -0.00015666417 -0.003906242 -0.0030227364 -0.003819812 -0.002601841 -0.0033270526 0.0016860049 -0.0011611237 0.0019651165 -0.00084611005 0.0030507983 -0.0026233115 0.0027395838 -0.00088110135 -0.0011515947 0.0018388784 -0.0030361586 0.001546194 0.0016950662 -0.002364072 0.0017168401 0.0034041791 -0.003889151 -0.0026242174 0.0034545083 0.0012516701 0.0012528055 -0.0034002443 -0.0023821427 0.002860329 -0.0005986167 -0.0012607179 -0.0017133658 0.0009814025 -0.00048534313 0.0038052031 0.0015657082 0.0020236515 -0.0033495955 0.0007346711 -0.00084263174 -0.0010631795 -0.00025344105 0.0029821983 0.0017534848 0.0002995958 -0.0011527427 0.0015039223 0.0024028602 0.0038464 -0.0020754107 0.002056245 0.0030218102 0.003618873 -0.0034258843 -0.0017649629 0.0035569174 -0.00070748624 -0.00038586708 0.0034539509 -0.0031268015 0.0008282712 0.0036653725 -0.0033456017 -0.0030469343 0.0017215904 -0.0036277154 -0.0007315747 -0.00035760092 -0.0006047338 7.864674e-05 -0.00038724346 0.00254829 -0.002221671 -0.00070312346 0.00047054328 0.002668736 0.0025595184 -0.001645096 0.0011358385 -0.001173522 0.0035456275 0.0018603633 0.0025085239 -0.002632816 0.0024843924 -0.001105025 -0.0019477803 -0.00039976105 -0.002753245 0.0017393618 4.8951693e-05 -0.0015635457 -4.088475e-05 0.0034777203 -0.0028194392 0.0035767127
i -0.0033916116 -0.0011211192 0.0018923344 -0.0013683947 0.0018817255 -0.0037090124 0.0026491126 -0.002217434 0.0036670142 0.0033691397 -0.0036382682 -0.0012044526 -0.0031466808 -0.0038973107 -0.003415575 -0.0011886939 -0.0019988543 0.0027996306 0.0036586237 0.0010780032 -0.0031701205 0.0038828591 0.00071550655 -0.0021584972 -0.00049202953 -0.0028340407 -0.0028832513 0.002859015 -0.0012090276 0.003468956 0.0031906725 -0.00075772253 0.00076962606 -0.0003547394 0.00035856696 0.0022703183 -0.0014232907 0.0026170355 0.0023904922 0.0031392742 -0.0018048679 0.0006883764 -0.0015218062 0.0036455193 -0.00202622 0.0038899884 0.0009254372 0.0013427045 0.002995216 0.0003635367 -0.0019250616 0.0025746976 0.0016344202 -0.00116159 0.0006317597 0.0017815689 -0.0022783994 0.0006338506 -0.001192617 0.0013356303 -0.0029518802 -0.001429708 0.00082663755 0.0034661386 0.0009939104 -0.0036484676 -0.0009317424 -0.0032314216 0.0029313187 0.00073562167 0.0028219211 0.0016211395 0.0013945601 0.001287863 -0.0015999844 -0.002766899 -0.0009833721 0.00024986733 0.002013609 0.0034194991 -0.0006129053 -0.0029374727 -0.0019489785 -0.0018889115 0.0016538952 -0.003883961 0.0034764656 -0.0027213225 0.0017509388 -0.003014567 -0.0031858687 -0.003210373 0.00054050435 -0.0025588057 0.0026422269 -0.0010850882 -0.003875139 -0.00094209076 0.0037771713 -0.0037105677 -0.0030978576 0.0016802603 0.0010759241 0.0035799206 -0.0019739843 0.0038715238 0.0016255857 2.0312198e-05 -0.00280724 -0.0037188272 -0.0031488212 -0.00022345527 -0.0003095023 -0.0019545695 -0.0023446633 0.0017612175 -0.0019943537 -0.0039040768 -0.0007024038 -0.0028867484 -0.0025785922 -0.0026216481 0.0016406291 0.003613 0.0032700216 0.0018982497 -0.0032591596 0.0034889097
t -0.00019618384 0.0014534214 -0.0012596968 -0.0026212954 -0.0025450292 -0.0014415323 0.0034822277 0.0008116769 -0.0026380832 -0.0031692425 0.00012549182 -0.0012609106 -0.0030511 0.0001800398 -0.0018299147 -0.0039025827 0.0025255547 0.0011735382 0.0026272568 0.0024673457 2.5534415e-05 0.0030114036 0.001172498 -0.0030520412 0.002230572 -0.0018654313 0.0032009182 -0.001970003 -0.003403399 -0.002624909 0.0023830761 0.0014908311 -0.00018381681 0.0028677157 2.2689814e-05 -0.0014028515 0.00074803625 0.0015932648 -1.0205929e-05 0.0015385235 -0.0004471203 0.0028494077 -0.00017177715 0.0012551285 0.0027310608 0.0011500572 0.00042200022 0.0013184957 -0.0008898245 0.0012563925 -0.0015902664 0.0034712523 -0.0028345087 -0.002129992 0.0012320837 0.0026945074 -0.0031220086 -0.0022897462 2.8826735e-05 -0.0017594015 0.0006837148 -0.0034060427 -0.0017447633 -0.0023517453 -0.0013892765 -0.0011943524 -0.003436346 -0.00039607647 -0.00055004156 -0.0023196198 0.002319525 -0.0005399301 -0.0028854797 -0.0017942499 -0.0028063995 -0.002680329 0.0017446101 -0.0029308763 -0.0033479428 0.0031874236 -0.0017345444 -0.0035801143 -0.00088588434 -0.0013657862 0.00068737386 -0.0038917346 0.00087732467 0.00053341954 0.0020908176 0.00018956118 -0.0037862235 -0.00080564053 -0.0035211216 0.0020780838 -0.0008800208 0.00077989383 -0.0016015455 -0.0019531702 0.0014474241 -0.0019241109 -0.0017038977 0.0001734464 0.0031381925 0.0025895047 -0.0035347017 0.0014632654 0.0025064424 -0.00066833146 0.0035430337 0.0027122272 0.0005562013 -0.0038245465 -0.0018995852 -0.0038326334 0.00019869993 -0.0029681444 -0.001504618 0.0025366046 0.00052618934 0.0013684902 -0.0021367401 0.001735399 -0.0025639208 0.0034270596 0.0018253514 0.00097575126 0.0018788064 -0.0013927157
u 0.0020772025 -0.0017133965 0.0038429834 -0.002459611 0.003085338 -0.0013866121 -0.0035091415 -0.0015410981 0.00016594272 0.0015465977 -0.0038309335 -0.0016749306 -0.0001586574 0.0003177381 0.00013281128 -0.0001356674 -0.0018816447 0.0022579883 -0.0019429823 -0.002911796 -0.002580967 0.0031166035 0.001012556 0.0020597435 0.0032648481 -0.0027660732 0.0018074891 0.0017119824 0.0019439782 0.0008070613 0.00014218573 -0.0004589726 -0.003758401 0.003621578 0.0021405888 0.00064611476 0.0030298696 0.0032447248 0.0011298097 0.0015909633 -0.002044845 0.0018507715 -0.0030177599 0.0037139978 0.0030355111 -0.0022801727 0.003392582 -0.0036231428 -0.0032204909 -0.002241193 -0.002410082 0.00012403124 -0.002745921 -0.00023245097 -0.0021259391 -0.0024325023 -0.0013211784 -0.0007079436 0.002907087 0.0029975043 0.0031091254 0.0022618833 -0.0036322444 0.000573352 0.0007396391 0.0013278535 -0.0022955984 -0.0009703454 -4.6093322e-05 0.0016417514 0.0037562249 -0.0006811263 0.0031153662 8.8773246e-05 -0.0019478523 0.0019179932 -0.001830098 0.00021478055 0.0011075068 0.0036423441 0.00083983573 0.0022462946 -0.001551348 -0.0028364824 -0.0032582132 -0.0010872708 -0.00022691161 -0.0033838712 -0.00116347 0.0030890794 0.00026815373 -0.00047019118 -0.0006688204 0.0005248746 0.0038857402 -0.0032872064 -0.003168407 0.0024195786 -0.0007899006 0.0038246145 0.001283423 -0.0028561612 0.0007128327 0.0037702953 -0.0018623574 -0.0017827479 -0.0020674919 -0.00063332944 -0.00353216 0.0016088701 0.00022062601 0.0038815616 -0.00023729369 9.198919e-05 -0.0028210257 -0.0025268793 0.003256965 0.0011698114 -0.003069949 -0.0037638873 0.0031447243 0.0031906953 0.0032277904 0.0032818343 -0.0007393728 0.0016233467 -0.0022899942 -0.003828572
e -0.0015195111 -0.0034071014 -0.00075623253 -0.003797384 -0.0020785597 -0.00012552421 0.0036129754 -0.00065884425 -0.001364875 0.001967067 0.0007554816 -0.0032386403 -0.0017942252 -0.0003588249 0.0017668606 0.0002763076 -0.00038644695 -0.0010989667 -0.0031078516 -0.0013162014 0.0022130834 -0.0032077 -0.003633174 0.0013760973 -0.0010117716 0.000601107 0.0014663184 -0.001204076 0.0023484481 0.0017678486 0.0034216018 -4.870991e-05 -0.0019423222 0.002573512 -0.002202451 0.0031843712 -0.0022692052 -0.0010280322 0.0011090293 -0.0034425065 -0.0022912058 -0.0035925834 0.0029094182 -0.00036187406 -0.0030867653 -0.0012660467 -0.002099992 -0.0006832177 0.00341207 0.0024748575 -0.0036308903 0.0029052831 0.0038372423 0.002701067 -0.00021862525 -0.0020108037 0.0031505097 0.0032512182 -0.00021861949 -0.0007134831 -0.001306282 -0.002196047 -0.0013894704 -4.504354e-05 0.0010449947 0.0019631987 0.0019714094 -0.003659425 7.057019e-05 0.0013985658 -0.0005477839 -0.00091202656 -0.0037471787 -0.0007735977 -0.002411603 0.003225198 0.0016231458 -0.003593403 0.0036420147 0.0024958975 -0.00043127194 0.003596652 0.0013657047 -0.00256362 -0.0016874481 0.00053531176 -0.00056132075 0.0017108403 -0.0022864772 0.0033981216 -0.0020634052 -0.0029624756 0.0027261674 -0.0016222612 0.00013118792 -0.002631807 6.161459e-05 -0.003038538 -0.0020980472 -0.0017278222 0.0015556219 0.0027251942 -0.0032088135 -0.00044490013 0.0031855884 -0.0027729927 0.00086490397 -0.0010217344 -0.001080617 -0.0018444005 -0.003678235 0.002652718 -0.0029787924 0.0006940697 0.0014250426 0.0035100111 -0.0017834238 0.0017665544 0.0017827322 -0.0034697128 -0.0035472861 -0.0022067227 -3.1575958e-06 -0.0036844118 0.00076014653 0.0006564968 -0.0006469794 0.0025987031
k 0.00067166326 -0.0023476004 -0.0022787172 0.0031863826 0.0022054475 0.0032398878 0.0024258858 -0.0031816752 0.0033660063 0.00055952877 0.0032825908 -0.0033607497 -0.0008856954 0.0037261522 -0.0021785873 0.0014608313 0.002536377 0.0003442216 -0.0029087001 0.0024954216 -0.0028163104 -0.0006781292 -0.0009626539 -0.0015631196 0.003727239 -0.0018999801 0.002429441 0.0009882711 0.0010415298 -0.0022036843 0.0029309113 -0.0018427258 -0.0037311104 -3.350968e-05 -0.0013815664 -0.0020246739 -0.0014838667 0.00037643133 -0.0026092927 -0.0032648726 -0.0026617663 0.002192484 -0.002098227 -0.0026333758 4.2927404e-06 -0.0004796972 0.002894978 -0.00031442466 0.00041867362 -0.001600035 -0.001468536 -0.0026921972 -0.002397042 -0.0031985724 -0.0035318087 -0.003416862 0.0028042062 -0.0017918547 0.00193278 0.0007302362 -0.0021541796 -0.0025869086 0.00015900505 -0.0012414956 -0.003195425 0.0022252237 0.0006353729 0.000250201 0.0006826502 -0.00011421667 0.0037607914 -0.0035224287 0.0022337425 0.0031270692 0.0032918737 0.0011190515 -0.0014076211 -0.00051697314 0.002400794 0.0018259885 0.0012336978 0.00066784176 0.0007360443 -0.0005709019 0.0038341405 0.002146685 -0.0006958346 0.0029259443 0.0029312014 -0.0015693037 0.0038721936 -0.00013707893 -0.0035619615 -0.002039622 0.0021484513 0.0034440758 -0.0006552461 0.0012390729 0.0032550956 0.00249541 -0.0027938948 -0.0009697269 -0.0026032 -0.0030191876 -0.00077865686 0.0009934178 -0.00087532715 0.0032264292 0.0007819633 0.003872257 -0.0008367503 -0.00010342992 -0.0027036848 -0.00021455102 0.003584041 -0.002580841 -0.0017339394 -0.0033752015 -0.0035710128 0.00030404993 -0.0016016373 -0.0038468547 -0.0003879051 -0.0022625357 -0.0023599195 0.0011630526 0.0014110927 0.0016198041
h -5.115793e-05 0.0004594396 0.003206408 9.082193e-05 0.0016922178 -0.0023236165 0.0018091161 0.00085130654 0.0021045154 -0.0014071853 0.0007081532 -0.0015099414 0.0038246023 0.0037069498 0.0015918679 -0.003063577 -0.0019725235 -0.003188282 0.0034174141 -0.0023292422 0.0035637964 0.0022486958 0.00088724546 -0.0022825112 -0.0032403893 0.003513161 0.0035942756 -0.0015429753 -0.00037478708 0.0031700402 -0.001521151 -0.0036486331 0.00012125641 -0.0016128026 -5.3107236e-05 0.00038313787 -0.0029950133 0.0016925787 -0.0013216565 0.00080285256 -0.0037403747 0.003868901 0.0024507933 0.0008621024 0.0032533838 -0.0028967736 -0.003228086 0.0029360089 0.0024665631 0.0023128027 0.003279991 0.0022179964 0.0017616628 -0.0007912058 -0.0018466355 -0.0016796527 0.0030112166 0.0034802768 -0.0008158801 0.00033526568 -0.0030476947 0.0006981667 0.0021042638 0.0027762924 -0.0008524283 0.001869715 -0.0023999189 -0.0030203753 2.016781e-05 0.0005468065 0.0009180652 -0.0032262926 -3.5594472e-05 9.262689e-06 0.0037887862 0.0013418415 0.00234074 0.0034532326 -0.00087445864 0.0025322698 0.0027890287 0.0008207319 -0.0036408177 -0.0022164565 -0.002856773 0.0027620823 0.000837492 -0.000444266 0.0023913002 0.0004282457 0.002263012 0.0027518491 0.00089637685 -0.0026979556 0.0031710116 -0.0036673704 0.0028735562 0.0036253005 -0.0022130478 -0.00016632142 -0.003145303 -0.0029530704 -0.0031450943 0.0010556708 -0.0025229119 -0.0038292208 -0.00019796641 0.00075405306 0.0016070995 -0.0007607763 0.001893213 0.0025916777 0.0022496502 0.0033923208 -0.0024832282 -0.0029739833 0.00110103 -0.0013044428 -0.0038320173 -0.002965711 0.0019172705 0.0021678507 0.0028647739 0.0002843589 0.003609032 -0.0017980058 -0.003322597 0.002327095
s -6.3318e-05 0.0010407947 -0.0026781927 0.0018896378 0.0030188418 -0.00023260468 -0.0038607074 -0.0008310564 0.0023642094 0.0025049914 -0.0010477174 -0.0036350237 0.003886712 -0.0026243874 0.0033890952 -1.0576543e-05 0.00015683529 0.001014698 0.0036180704 -0.0030821345 -0.0030750309 -0.0035809749 -0.00058466126 0.0011583841 0.0011021663 0.0017980766 0.0021943226 -0.0026409405 -0.00018752912 0.00036267703 0.0018616902 0.0017424474 -0.0005822016 -0.0007940936 0.0003639663 -0.001034508 0.0020780668 -0.001388173 -0.00016214378 -0.0030394252 0.00053190114 0.0024461052 0.0026282493 0.0024225246 -0.003405429 -0.0027713631 -0.0017087979 -0.0032201228 0.0009394554 -0.001903095 0.0011464558 8.239795e-05 0.0034115538 -0.0005873393 0.0013487187 0.0013198421 0.00021988702 -0.0027148495 -0.0025123903 0.0004340634 0.00094260834 -0.00042360864 -0.0013627325 -0.0027463895 0.0024807733 -0.0034048145 0.00062771584 0.0020068784 -0.00057702593 -0.0038910625 -0.0021833915 0.0017502226 0.0028280993 0.0029424299 8.851894e-05 -0.0021945243 -0.0018699969 -0.00023247278 0.0015851754 -0.002263793 -0.00036369424 -0.0015455094 -0.0033877748 0.0001536774 0.0019886834 -0.0023914562 -0.0015730413 0.0001256912 -0.0032763479 -0.0013091812 -0.0020719764 0.0009231711 -0.0034642697 0.00082822895 -0.0024820592 0.002437529 0.0021554537 -0.0011760766 -0.00029889628 0.0011859096 0.002618704 0.002846124 -0.0009356717 0.0022131454 -0.0015269158 -0.0017496912 0.0024584865 0.0019018564 -0.0009101657 0.0016985558 -0.0012535991 0.0022939497 -0.00084275194 0.0017113822 0.0034439627 0.0007937456 -0.0038965947 0.0036182522 -0.0027362143 0.0025400554 0.003612751 -0.0026837299 0.0018483981 0.0029742927 0.0027295714 -0.0018346246 0.0022457177 -0.002243884
l 0.0009053913 0.0018116435 -0.003748207 0.0010816151 -0.0026597045 -0.0036962738 -0.002457674 0.0033548346 0.00016676534 -0.0023128618 -0.00018970662 -0.0008916809 0.0015003236 0.0027302494 -0.0001243479 0.002999049 0.0032431306 0.0019144278 -0.00094166806 -0.0034365917 -0.0017343058 0.0033245452 -0.0025003843 -0.0019592165 0.001025619 -0.002928509 0.0023733305 0.0037331572 0.0038993063 0.0014590978 -0.0019673582 0.003709235 0.0020054926 0.0014072617 -0.00029259874 -0.0033579702 0.0023626615 -0.0024564737 -0.0020730637 0.0015021781 0.00048891356 0.00032691215 0.0033096748 -0.0012596874 0.00078508246 0.0038344688 -0.0021213163 0.0017649814 0.0019957812 4.557782e-05 -0.0014747337 0.0035986074 -0.001002853 -0.0022802195 0.001696297 -0.0019331755 -0.0038554391 0.0020975193 -0.0017645301 -0.0028765989 0.0037657067 -0.002065394 -0.0014072701 -0.0016692794 0.0023583588 0.00054997305 0.0034080308 -0.0018088863 0.0014585182 0.0033354124 8.016512e-05 -0.0016245662 0.0010320144 -0.0024633005 -0.0006757624 -0.0005726433 0.0025752517 0.0009228414 0.0019770304 0.0016169726 -0.0037882943 0.0033149007 0.003109401 0.0030775133 0.00043674588 -0.0016697176 0.0017514498 -0.0032139863 0.000924448 -0.0034446584 0.0021826082 0.0009176315 -0.0017788333 0.0021318924 -0.0031544198 0.0012410346 -0.0013575485 -0.00035879138 0.001826045 -0.0032017496 -0.0012580763 -0.0011952654 -5.4449705e-05 0.0012228186 -0.002269389 -0.0020515174 -0.003646546 -0.0038872142 -0.0014647534 0.003331262 0.0029742194 -0.0018365809 -0.00077526906 -0.0009802555 -0.0011576562 -0.0016988787 -0.0037635888 0.002857048 -0.0015652739 -0.0029151388 -0.0025226688 -0.0035920152 -0.0028484266 -0.0020572504 -0.0014104361 0.001295834 0.0009799359 0.0015155413
n 0.0015124603 -0.0024532855 0.002909231 -0.0004807071 -0.00058273267 -0.0007067605 0.0018427345 -0.0013714628 -0.00128851 0.0018565467 0.00062213035 0.0006085148 -0.00293901 6.0267706e-05 0.0029332733 0.0006124329 0.0010434143 0.00027696323 -0.0004770627 0.0018042459 -0.002930897 0.0014866706 -0.0016912777 -0.00072947406 0.0028796499 0.0027904345 0.0018017496 0.0030872123 0.0033204362 -0.0019500692 0.0027067217 0.0015138903 0.0020570194 -0.0023318941 -0.0019891693 0.0024658868 0.0007345941 0.003619437 0.00039932298 0.0012359591 -0.0034119745 0.0006276859 0.002293706 0.0033931888 0.0023486386 0.0025478222 0.0024603726 0.002380593 -0.001754591 0.0027694043 -0.0023161361 0.00031234548 -0.00063427014 -0.0029459912 -0.0034680255 0.0013079947 0.0025899962 -0.0012706995 0.0005445714 -0.0018136218 -0.0005172581 0.0010292483 -0.00048161705 -0.00097092334 -0.0022819059 -0.003532648 -0.0039025296 -0.0018836727 -0.002316573 0.0006638558 -0.0009537983 0.0026404855 -0.00032098702 0.00056976045 0.0021350612 -0.0021436706 -0.001682781 -0.0017838102 -0.0014915613 -0.00081514433 0.0024442892 -0.003435579 0.0023238298 -0.0029494395 0.0013683166 -0.001993158 -0.0010907546 0.0023895227 -0.0030710942 -0.001426325 0.00047796627 0.0027642096 -0.0038417205 0.0009992621 0.0025513214 0.0006221914 -0.0035132074 0.0017049478 0.0027408071 0.0017748591 0.002051616 -0.0008490764 -0.0010161627 0.0011990182 -0.001401153 -0.0038942483 -0.002406992 0.0015987606 -0.0019894624 0.0016639738 0.0024449783 0.0004945778 0.0010202724 -0.00064330443 0.0023365524 -0.00089698855 -0.0009406528 -0.002693099 -0.0010840081 -0.0004738935 0.00077423995 -0.00090002007 0.002280634 -0.00016438648 -0.0011422446 -0.0027637656 0.0027580254 -0.0013742269
o 0.00053795276 -0.001042139 -0.001426247 -0.0039024467 -0.003322295 0.0038481082 -0.000566043 -0.001889336 0.00074851105 0.0035063296 0.0027619675 0.00019420803 0.00044322273 -0.00028016203 -0.0005518293 -0.0034112579 -0.0007477615 0.0024098463 -0.0033068426 -0.0025123223 0.0018079738 0.0032988316 0.0013249458 0.0020964327 0.0036559391 0.0008648388 -0.0017585985 -0.0032215763 0.0033481484 0.0036766853 -0.001024982 0.0009191278 0.00027689652 -0.0008621292 0.0035507395 0.000407615 0.0014202596 0.002068311 0.00066844973 4.5988454e-05 0.003133905 0.0030231515 -0.002309021 -0.0031116751 -0.0028162797 0.0027610133 -0.0016778725 0.003745573 0.003052809 0.0026557695 -0.0037023877 -0.002524959 0.0027649335 0.0035779169 0.0013637743 0.00094675645 0.0024593875 0.0007836536 -0.0005813208 0.0016804647 -0.0021717614 0.0024635654 -0.0024267868 -0.0037706571 -0.0020535088 -0.0036761488 0.0010059883 0.001075904 -0.00072177325 0.0010057834 0.0014834913 -0.0036691115 -0.0013936084 -0.0034305926 0.00036442885 0.0012267533 -0.00025885776 -0.0037857008 -0.0027618713 -0.0031919188 0.00096089306 -0.00095522753 0.003713033 0.0018319178 -0.00045374225 0.0013667557 -7.442575e-05 0.0017669601 0.0004996477 0.00094477437 -0.001126284 -0.0032743271 0.0009980076 -0.0019746658 -0.0021597536 -0.0037995942 -4.8365862e-05 0.0011845359 0.0035517758 0.0003783905 -0.0035011098 -0.00039787867 -0.0038015149 -0.002585141 0.0032491607 0.0019379568 -0.0031646015 -0.0014969727 -0.0034008557 -0.0028308695 -0.0022406238 0.0005381834 0.0015487231 0.0036316956 -0.0038535662 0.00049529725 0.0021296851 -0.0016788008 -0.0016161663 -0.0017576121 -0.00054138346 -0.0005520657 -0.0007418752 -0.0025450024 0.0008934672 0.0031270979 0.0002670244 0.0017675742
r 0.0014883031 -0.00034908988 0.0009433115 0.0035369943 0.0014375792 0.003631421 -0.00025437484 -0.0028861274 -0.0029571091 0.00030631333 0.00035128382 0.00082272553 -0.0033095202 -0.0029089204 0.0024603123 -0.0003712745 -0.0005343803 -0.00016190919 0.0037278826 0.00036029445 0.0028846245 0.003882532 0.0018155534 -0.003748883 -0.0027172691 -0.0021115644 -0.00027947102 -0.0021251095 -0.0002573495 0.0033653665 0.0024937317 -0.0015212788 -0.00276079 -0.0012583383 -0.00076540106 -0.0036996957 0.0024983117 0.002924146 -0.00033819684 0.0024524336 -0.003109128 8.130271e-05 0.0022708368 0.00032571127 0.0037726958 -0.00041031808 0.0037270635 -0.0032876423 0.0031726225 -0.001004208 -0.00050688954 0.0008074006 0.0019111477 -0.0035120083 -0.0011421201 -0.0037961395 -0.0015343432 -0.0033840775 -0.0017549833 -0.0038667894 0.0021479917 0.0020729273 -0.0012419752 0.0036235924 0.0013526623 0.002427568 -0.0037370143 0.0007809762 0.0021424831 -0.0023967435 0.0020925447 -0.0017413651 -0.0021396943 0.0019500201 0.0033571548 0.0033006761 -0.0028547363 0.0035644954 -0.0035896562 0.0031041333 5.0799812e-05 0.0013665911 -0.0006515633 -0.0027484512 -0.00011693549 0.0009360469 -0.0015465327 -0.0010296789 0.0002957059 0.0011207701 -0.0010440889 -0.0030176982 -0.0038921873 -0.0039000306 0.003268754 -0.0017313802 -0.00039086665 0.002100172 -0.0003118301 -0.0007213474 -0.0019423071 0.003551582 0.0024366279 -0.002246432 -0.0022909322 7.522547e-05 -0.0016277707 0.0015963851 0.00097433385 -0.0021255298 -0.0025847505 -0.00092164957 -0.0011003413 0.0028728337 -0.0022475554 0.0026843012 0.0017895068 -0.0016556495 0.0015863173 -0.0019269233 -0.003512151 0.0007536859 -0.0034661996 0.0038444754 0.0022851727 0.001673991 -0.0029590481 -0.0038849532
g 0.002868945 -0.0021392708 0.0037486004 0.00338244 -0.0021712952 -0.0027350476 0.0028416559 0.0029962752 -0.00087686244 -0.000272663 -0.0006550028 0.003585616 0.00053654006 -0.0033629974 1.384451e-05 0.0011082607 0.0015751224 0.0009990694 -0.0019271626 -0.00024099494 0.001585489 0.0031150468 0.0009648586 0.0015482423 0.00034167722 -0.002099784 0.0023282522 0.003597177 -0.0014488295 0.0020515658 0.0023257567 -0.0020582485 0.0024759583 0.002071898 0.0011338684 0.002955119 0.003767989 0.001955331 -0.0024876008 0.0018232708 0.00021923456 -0.002111005 0.0021822178 -0.0017785404 0.003643326 -0.0015263552 0.002660483 0.0012063986 -0.0009864493 0.0005526175 0.0038083976 0.0022834172 -0.0010504961 0.0034272934 -0.00039983614 0.0027700257 0.0005938491 -0.003104334 0.002291345 -0.00221983 -0.0020551642 0.00010746753 -0.0037986839 -0.001223636 0.0010956612 -0.0030178174 -0.0031974874 0.0019735442 -0.0022211077 6.465624e-05 -0.0023619065 0.003482789 0.0030820067 -0.0038624029 -0.0026987426 -0.0032758852 -0.0028105262 -0.0035943973 -0.002130014 -0.00028892866 -0.0026351067 0.0030721216 -0.0017266475 -0.0003855968 -7.0096453e-06 0.0023548098 -0.0038356795 -0.002224046 0.0025189067 0.0016686623 0.0004302173 -0.0037111342 0.00039379438 -0.0015534491 0.00085639197 -0.0018731501 0.0012614555 -0.0032587072 0.002658427 0.0035668106 -0.0009922598 -0.0008759407 -0.002118977 -0.0025637625 -0.0019181623 0.0016006747 0.00049031654 0.002269887 -0.002931414 0.0014718137 0.0020636714 0.0009906925 -0.0020982192 0.00039333108 0.0033895064 0.0037907101 0.0024204648 0.002051403 -0.0032112442 -0.0033061653 0.0020272091 0.0032319538 -0.00038236342 -0.0031729958 -0.0007577757 -0.0034636525 -0.0026453072 0.0024203605
c -0.0014334983 -4.2863365e-05 0.0033237354 -0.001611503 0.001087032 0.00095795136 0.003396642 0.0014687558 0.0037696597 0.0021468038 -0.0024709 -0.0016191632 -0.0035418242 0.0036727532 0.0036456357 -0.0013360814 0.0022447018 0.0013590972 0.0032862723 -0.003639146 0.0028633259 0.00126468 -0.0023859476 -0.0035928315 -0.00012103606 0.0036036358 -0.0026830214 0.0027556724 0.0023967489 0.0017087794 0.00049539615 0.0005863361 -0.0026658815 -0.0026448607 0.0023846063 0.00093585 0.002213462 0.0011647182 -0.003809924 0.002604349 0.00028860854 0.0027307041 -0.0022250619 0.0008345633 0.0031228971 0.0028656605 -0.0022941134 -0.003363245 0.0037180958 0.0005987036 0.0009914433 0.0012936133 -0.003021834 -0.0028816268 0.00081525685 -0.003432408 0.0034144905 0.001202951 0.0025119805 0.00058367726 -7.746625e-05 -0.0021599259 -0.0010659351 0.0010168649 -0.0009535129 -0.0013894611 -0.0013419101 -0.00084522774 -0.002632908 -0.0005005098 0.0029033744 -0.0030831282 -0.001372894 0.0017940291 -0.0014484794 0.0038180714 -0.0011282248 -0.00066819123 0.003490914 0.00057528226 -0.001474741 -0.0005525145 -0.0013918102 0.0029973595 0.0002925364 0.001163878 -0.0012004455 -0.00037911144 0.0036994608 -0.0037986166 0.0015070802 -0.0027172326 0.00068478094 0.0025055534 0.0037650755 0.00096285605 -0.0031166153 -0.0028683802 0.00159519 4.6707006e-05 1.0394016e-05 0.0024972537 -0.0024180133 0.0034504721 -0.0024352283 0.0033864302 0.0013660891 -0.002179178 0.00016093248 -0.0014035922 -0.0019860691 0.001050002 -0.0014062226 0.00145101 0.0034182286 0.00085377804 -0.0028686903 0.00049380644 0.001407488 -0.003014515 0.0016353041 -0.0037479808 -0.0031370807 -0.0010453032 -0.001017547 0.0010976354 -0.00012727789 0.0029520437
d -0.00073680934 -0.0024200007 0.0017352216 0.0019120527 0.0003628361 0.0034360832 -0.0007605841 0.0005662212 0.0011927665 0.0001365879 -0.0027552638 0.0032905668 0.002961523 -0.0016173841 -0.0021173223 -0.0017424787 -0.002760491 -0.0013808209 -0.003446022 0.0027611526 0.0033585434 -0.001463254 -0.003417384 0.00052100956 0.0006721783 0.0026170693 0.002336317 0.0037231804 0.0029469002 0.00072543265 0.00014731119 0.0032456852 0.0027247334 0.0026905907 0.0014381338 -0.0011673784 0.0012387286 -0.0030326925 0.0020902562 0.0019365293 -0.0034037575 -0.002316026 0.002302267 0.0027116353 -0.003427007 -0.0029670661 -0.003259494 0.00087668095 -0.0035403732 -0.0029959455 0.00095355796 0.00076213223 -0.002311099 0.0025588868 -0.0013922175 -0.0023205408 0.0006192871 0.0021199672 -0.0023270738 -0.0017791233 -0.0023202691 0.0024855619 -0.0002567219 0.0007727461 0.0010159184 -0.002253739 0.0032952353 0.0034349759 0.0024468708 0.0038397184 -0.0031281302 0.0017984675 0.002009251 0.0020237176 -0.0020379736 -0.0019685656 0.0013995036 -0.00046494522 -0.0022079612 -0.00063810276 0.0038152088 0.0005126431 -0.0031505942 0.0021019212 0.00069263164 0.0016063693 -0.0034635859 0.0003595893 8.859903e-05 -0.0026125696 -3.6765894e-05 -0.0019470915 0.0011370739 -0.0032963995 0.0028157744 0.0011324512 -0.0012668144 0.0011769675 0.0015773969 -0.00053148397 -0.0032581706 -0.0031912671 -0.00023257989 -0.0013728983 0.0006237628 -0.00039794136 -0.0010152892 -0.0021824543 -0.0010879767 0.0023062152 -0.0038378648 -0.003703354 -0.0014967426 -0.0005634997 -0.0036241764 -0.0023847849 -0.0015662936 -0.0013248893 -0.00351184 0.0022779629 -0.0017978726 -0.0004980679 0.0010104077 -0.0017617015 0.0016284435 0.0027323703 0.0030833804 0.0013997797
p -0.0036200602 -0.0034739159 0.000217495 0.0004918498 -0.0019256823 -0.0028260371 0.0022424655 0.0021574826 0.0028191735 -0.0017488961 -0.0009177025 -0.002048534 -0.0009745362 -0.0019375888 -0.0025939539 -0.0016792453 -0.001867852 -0.00053889974 0.00041091125 0.00022906376 -0.0006840485 -0.0030726627 -0.00064225163 0.0008267507 0.0021775323 -0.0012117961 1.2468312e-05 -0.0020890017 0.0014420433 -0.00051734754 0.0028303752 0.00074277783 0.0023665826 0.002839474 -0.0013022716 -0.0017089385 0.0020754626 0.0037914622 -0.00021309083 0.0034543464 0.0037964955 -0.00082241726 -0.0038685934 -0.0016925519 -0.00022461129 0.0026405775 -0.0014152167 -0.00057410024 -0.0029306533 0.0019475563 0.0020363168 -0.0005414557 0.0031447185 0.0015746388 0.0021941704 -0.0021786985 8.5358704e-05 0.0031228547 -0.0032997367 0.0036789197 0.0014944968 -0.0033680862 -0.0017570818 0.002318845 0.00027498463 0.0023138183 -0.0033297709 -0.0020920637 -0.0034338702 -0.0020478594 0.0026331316 -0.0017941288 0.0013306957 -0.00093968643 0.0022494171 -0.00012195737 0.00052171387 0.0021879838 -0.0020058893 -0.001595093 0.0019133608 -0.0023604461 0.0037076543 0.0025427567 0.002502442 0.0026956196 -0.0030395957 -0.0015666625 0.003826818 0.0038073016 -0.003630739 0.0028858427 -7.3775685e-05 0.0016238048 0.002580089 -0.0015267619 -0.0024170263 -0.00023641784 0.00220221 0.0011102502 0.00019201837 0.00033615166 -0.0018790254 -0.0036097383 -0.0022847417 0.0018075494 0.0021167076 -0.0023361146 0.0016836389 -0.0017010706 0.0031321212 -0.002364018 0.0032041501 0.0038410365 0.0015626518 0.0026164176 -0.003273132 -0.0023136348 -0.00073841354 -0.0017641813 0.0032976598 -0.003518155 0.0026915018 0.0035604571 -0.0006120891 -0.00036349054 0.0006601991 -0.00213197
b 0.0011898848 0.0010888535 -0.0036536206 -0.0017332454 0.003686818 0.0035968397 -0.00019794164 -0.0025063579 -0.0012875032 -0.0037691053 0.0013516636 -0.0032316449 -0.0036775756 0.0017644304 0.0037247897 -0.0023803646 0.0021685928 0.0010449181 -8.347115e-05 -0.0028609477 -0.00018176336 -0.002548784 -0.0026815156 0.00042082122 0.0020091552 3.265982e-05 0.0019361088 0.0024530464 0.0028410433 -0.0009915556 -0.0025381555 -0.0035483816 0.0035438398 -0.0011264542 0.0033748485 0.0035443902 -0.0016638816 -0.0033878624 6.406692e-05 0.0025476061 0.0006712442 -0.0038542235 -0.0022980145 0.002314257 8.571359e-05 -0.001735999 0.0037680108 -0.00067245885 -0.00047143537 0.0018704067 -0.002104139 -0.0024346726 0.0021386081 -0.001612618 0.0029480672 -0.0023566147 -0.0013887859 -0.0006665302 -0.0031441082 0.0011409589 -0.0023200074 0.0022993363 0.0019563383 0.0021716084 -0.00056521664 -0.00044561437 -0.0012004004 -0.0014132371 0.0015625214 -0.0014703457 0.0031014401 -0.0012021498 0.002196529 -0.0037133626 0.0029286807 -0.0006391288 0.002713365 0.0030851874 -0.0016059093 -0.0008520559 0.0026516141 -0.0036693206 -0.00019555834 0.0018385745 -0.0036552115 -0.0026963123 0.0034838107 0.0023307172 -0.0028059613 0.0032498543 0.0035219798 -0.0029384785 -0.0013967778 -0.0010872193 0.002909684 -0.0027460728 -0.0033687246 0.0014007683 -0.0026209103 -0.0019593155 -0.003036107 0.0030394879 -0.0010186513 0.0024962462 0.00265573 -0.0016792641 0.0021847014 -0.0014845318 0.0034120837 0.00057446567 0.0032386954 -0.00112164 -0.001003424 -0.0029153533 0.0007204618 -0.003296079 0.0014571925 -0.003098015 0.0026611562 0.0030761382 0.0014662606 -0.0027976981 0.0031642597 -0.00059032853 -0.0033669001 -0.0025022537 0.003581891 0.0004947217
x -0.0029920908 -0.00055324775 -0.0032595033 -0.0010914948 -0.002352416 -0.0007777372 -0.0012123447 -0.0032900746 -0.0022697865 0.0037639465 -0.0009592191 -0.0031097422 0.0013947828 0.0029127994 -0.0008561719 -0.0019787902 -0.0034536074 -0.0019002062 0.0018488655 0.0023899274 -0.0032168746 -0.0024447269 0.0023373386 -0.0023751133 0.0018721638 0.0005727454 -0.003013773 0.0038006492 -0.0007987479 -0.0033810132 0.0020698265 0.0013817879 -0.00090520736 0.0022943495 -0.0032781237 -0.0006142327 0.0033492607 -0.0011955606 -0.00049934513 -0.0029086499 -0.0023306392 0.00012875453 0.0015764895 0.002612021 0.0017272726 -0.0033189524 -0.0031490563 0.0034514687 -0.0037542682 -0.0025591338 9.459774e-05 0.0015625692 -0.0014854684 -0.0035978807 -0.0014803465 0.0019279465 -0.0031954797 -0.000525523 -0.0023540638 -0.0033710022 -0.00055490347 0.0031511318 0.0035083448 0.00017310426 -0.0031979287 -0.0011227176 -0.001578156 -0.0018616697 -0.002947135 0.001278829 0.0023752453 -0.0020263214 -0.002407535 -0.003629623 -0.0004755457 0.0006583345 0.0022786853 0.001825314 -0.0019340521 -0.003772697 0.0010747348 -0.0024300613 0.002479706 -0.0012554281 -0.0008576537 -0.0036733446 0.0008886482 0.003608375 0.0013560975 0.0027443608 0.0020763867 0.0020457066 -0.00016183489 0.0034866969 -0.00071586145 0.0022047826 0.0018709537 0.0004370583 -0.0030707428 -0.00046989202 7.277308e-05 -0.0033470283 -0.001965524 -0.0012342281 0.00033315195 0.00045467628 0.003561464 0.0031027705 0.0018360433 -0.0022703644 0.0023943675 0.0002173223 -0.0029013965 0.0016754303 -0.003865672 0.0018579375 0.003272114 0.00096950185 0.0024360227 -0.0012180301 -0.0013183289 0.0021003673 0.0015925914 0.0033613076 -0.0018398099 0.0014982647 0.0017056367 0.0028795332
w 0.00012493948 0.0007889068 -0.00050431554 -0.0003525521 0.002538206 0.000428618 0.002346915 0.0035291074 0.00025178847 0.003597628 -0.002116405 -0.0038374173 -0.003693751 -0.0034054243 0.0027071717 0.0008594242 -0.0011732953 0.0035679084 0.0026280684 0.0028319852 -0.0028338924 0.0008960262 -0.0036771016 -0.0027107066 -0.0038426148 -0.0035532143 0.0019695712 0.0013882858 -0.0011686529 0.0028657892 0.0011005579 -0.00031800443 -0.0023063738 -0.00031023755 -0.0032117236 0.0009565305 0.0035528503 -0.00135668 -0.003051632 -0.0023925663 0.0019754104 0.00013932168 0.0012030927 -0.00027686986 0.0029762425 0.0034841415 0.0011812915 -0.002134216 -0.0032642316 -0.0037941304 0.00048354044 0.0013347472 -0.0022239634 -0.0019869558 -0.0028647617 0.0035680407 0.0020319961 -0.0006451201 0.0013255292 0.0016398932 -0.0006467157 0.0029532316 -0.00039577726 0.0034041952 -0.0034728907 -0.00020966813 -0.002959365 0.0034226074 0.0033702108 0.0023469431 -0.0038985098 -0.00089545676 0.0014367845 -0.0030922533 0.0013221785 0.0021118345 -8.65729e-05 -0.0014191439 -0.0021301168 0.0034642254 0.00380691 0.0038312662 -0.0037908263 -0.00034999347 -0.001242789 0.0025781877 -0.002835208 -0.00043896397 0.0017194301 -0.0006967494 0.0006835665 -0.0006870568 0.0012647014 -0.002131625 0.0019243781 0.0034237904 -0.0037517229 0.0024512368 -0.0031899447 -0.00049637596 -0.0006106826 -0.001331199 -0.0033464094 0.0029020729 -0.001045482 0.0005026593 0.0026968704 0.0019435307 -0.0028584176 -0.0014604747 0.00095285696 0.003519572 0.0003602314 -0.0013544839 -0.0038913954 0.0024481846 -0.0012251484 -0.00030717574 -0.003253381 0.00053043646 -0.0004086009 -0.0034428518 0.0015269063 -0.0028452226 -0.0006650458 -0.0018858024 -0.0028631473 0.003622227
m -0.0022603886 -0.0033863753 0.000785996 0.00049685105 0.000769549 -0.0033095856 -0.00071862474 -0.0025673448 -0.0011586538 0.00018811949 -0.0006810726 -0.0020981056 0.0035292665 -0.00034255654 -0.0028217607 0.0012360866 0.0016485765 0.0022079656 0.0007866282 -0.0017744908 -0.0024454033 -0.0013073088 -0.0023184689 -0.0010557068 -0.0014819057 0.0038095082 -0.0010888955 0.0007832423 -0.0025351234 0.0026722976 0.0023180875 0.000736977 0.0031377384 0.001610812 -0.0023689098 -0.0029140203 -0.0038133853 -0.0014111801 -0.0038512074 -0.0037423838 0.0032403965 -0.00069338817 -0.0016793666 -0.002736595 -0.0018971321 0.0004999018 -0.0033752704 -0.00105481 0.0030023241 -0.00019592459 0.003421568 0.002767805 0.0028903445 -0.0017964856 0.0031862129 7.476234e-07 0.00036941486 0.0008153649 -0.00028476166 -0.0014950465 -0.0004964752 0.0009161942 0.003376057 0.003413211 -0.0032002137 0.0012916143 0.0033711588 0.003875233 0.0030501124 -0.0014543833 0.0038357947 -0.003585841 -0.0011322512 0.0027534815 -0.0013101561 0.0012955422 -0.003047622 -0.0035389375 -0.0032844646 -0.0011750949 0.002610983 -0.00274487 0.0012128903 0.0016835884 -0.00085808383 -0.00076334015 -0.0037762076 -0.0032229058 -0.00030788736 0.0015225875 0.0017597029 0.00017795782 -0.0034331658 0.0016699679 0.0005202488 0.0027346446 -0.0012605743 -0.0019122106 -0.0028660777 -0.002234291 -0.0028095683 0.001695452 -0.0014345511 0.0010597692 -0.00063769653 -0.002471952 -0.0019969917 0.0005308617 -0.0013017671 0.0029803307 0.003346196 -0.002057213 0.00046989592 -0.0009998293 0.0026560726 0.0012544623 0.00019688085 -0.0032735623 -0.0008491572 0.0026639514 -0.003445385 0.002317985 0.0016307866 0.0027884322 0.0017471609 0.00022930028 -0.000437783 0.0027724977
f -0.00088554167 0.00055076735 0.0033686194 0.001716719 0.0029404631 0.00019156614 0.0016310642 0.002947074 -0.0026678029 -0.00023890514 -0.0038441943 0.0012603556 -0.0031027757 0.00051812606 0.00043624596 0.0035424407 0.0008832023 0.0025720627 -0.0036084352 0.0017585701 0.0011751116 -0.0023749147 0.0027636248 -0.0031393347 -0.0020662055 0.0012925833 -0.0024044411 -0.0007694977 -0.003511847 0.00050149777 -0.00051091454 0.00054885086 -0.003663552 0.00035704966 -0.0020147215 -0.0031693422 -0.0020169818 0.0024528522 -0.0015439091 0.00020554365 1.2511774e-05 0.0027484442 0.0019979456 0.0033012556 -0.00011102662 0.003798604 -0.0013256585 -0.0022797803 -0.0026687945 0.0009563117 -0.0012290045 0.0018701396 0.002937348 -0.0010879058 0.0019285863 -0.002683005 0.0011560896 -0.0010997514 -0.0029415947 0.0028406829 0.0018680384 0.0024016406 -0.00036003243 0.002126003 0.0023028995 0.002480844 -0.0012708905 0.0016222681 0.0035350758 0.0020992002 -0.0009610723 0.0035181993 0.0033620386 -0.0019207236 0.002638726 -0.003767811 -0.0015620051 0.0035304618 -0.0031323594 0.00283354 7.439293e-05 0.0033392762 0.0029024906 0.003542746 0.002937674 -7.85191e-05 0.002901637 -0.0035180096 -0.0008698668 -0.002217954 0.0008052821 -0.00035770301 0.0025523189 0.0024666034 0.0007199861 0.0038082139 -0.0006477007 0.00368088 -0.0024169409 -0.00060829055 0.0034148651 -0.0038948413 0.00048197983 -0.0025414603 0.0020370793 0.0010317132 -0.0032154145 -0.0016031491 0.001775365 0.00015512311 -0.0010640073 -0.0016559318 -0.0025560055 -0.003693065 0.0017306362 -0.00055930414 -0.0019707885 0.002421634 0.0027411103 -0.00022850343 -0.0010889822 -0.0030194027 -0.00297171 4.1410636e-05 0.0016262351 0.00040995318 0.002356003 -0.0007632636
j 0.0014122392 -0.0005852575 -0.0015185025 0.0011620278 0.0007561158 0.002173824 -0.0008279183 0.00017085423 0.00033918986 0.0032159896 -0.0004761829 -0.0009896256 -0.00087364035 -0.0018235819 -0.0035071992 -0.0005187926 -0.00021537919 -0.00035884397 0.0020956486 -0.0033189515 0.002058837 0.0008619926 -0.003883902 0.0012167075 -0.00020004356 -0.0024985396 -0.0033542134 0.0006457215 -0.00211922 -0.002345338 0.0032789537 0.0026332561 0.00092310103 0.0020159434 0.0035904578 -0.00088759634 -0.0008477711 0.0012368626 0.002191124 -0.0036234134 -0.0012271703 0.0039031007 -0.0014567741 0.00168355 -0.0003555531 0.0005890516 -0.001810216 -0.0034601944 0.0007718039 0.0018756308 -0.0021697565 0.0034535008 0.0037554202 -0.00074407674 -0.0028280187 0.0028991639 0.00039921465 0.0030041034 -0.0018420913 -0.00041901192 -0.0021938453 -0.00025639165 -0.0035691797 -0.00055455527 0.00081972196 -0.002715648 0.003045722 0.00056049874 0.0023918084 0.0009862034 0.0011319697 0.00091600174 0.0014978166 -0.0030253283 0.00022131727 -6.407812e-05 -0.000510947 -0.00068797823 -0.0026406422 -0.0011554037 0.0027502193 -0.0012071102 -0.0037848586 0.0015842861 -0.0022250104 0.0035050623 -0.002298872 0.001857243 0.00033341016 0.0021535328 -5.227011e-05 -0.00040452348 -0.0030601898 -0.0021091877 -0.0019208076 -0.0038756032 -0.0020180137 -0.00073605333 -0.0008744042 0.0024872108 0.0036378733 0.0010209199 0.0018736098 0.003376341 0.00043495023 0.0017380844 -0.003071564 0.0011849807 -0.0035476503 0.0017331949 0.0012945062 0.0017680086 0.0022747056 -0.0013270723 -0.0031178086 -0.00045849718 -0.0008434248 0.0030423254 0.0036856954 0.003243179 0.0016429129 0.00023764737 0.0009690137 0.0028581822 0.0020877314 0.0017596614 0.00028120528 0.0023616918
y 0.0029366848 2.10643e-05 0.0018911479 -0.0015019753 0.0032388743 -0.00017168956 0.0034312021 0.0004903654 0.0031852587 0.0012856118 0.0030899178 0.0012195716 0.0010427426 0.0032164261 -0.0020115727 0.002750864 0.0037112157 0.0037137608 -0.001126546 -0.0018942348 -0.002359911 0.0014695043 -0.00013503953 -0.0019965589 0.00075669447 0.0019771967 -0.0015714243 -0.0027861851 0.0007957549 0.000409481 0.0018807532 0.003406734 -0.00244798 -0.0020967426 -0.0002030092 -0.002907667 0.0011677233 0.002680253 0.0012193947 -0.00023303187 0.0019200338 -0.0030467552 -0.0025920211 -0.00071297033 0.0030270212 -0.0018810006 -0.0034834086 -0.001273907 0.0006679178 -0.0022228297 0.00046614304 -0.0010070222 0.0005389803 -0.00035620932 -0.0030056252 -0.00040094208 0.0009604849 -8.0666694e-05 -0.0022994129 0.0018432707 -0.00083247403 0.0023564515 0.00021554717 0.0012693066 -0.0012164803 0.0011169766 -0.0012617012 -0.0015245028 0.003202418 0.00052213034 -0.0021242688 0.0025710512 0.00166253 -0.0018564869 1.6327459e-07 0.0031103904 0.0007789601 -0.0017447837 0.0012607157 0.0013553716 -0.0017932884 -0.0011931448 -0.00091373536 -0.003326433 0.003450057 0.0007555552 0.00346932 -0.0033308703 -0.002069833 -0.00013019246 -0.003082607 -0.003813609 -0.0031761439 0.000492852 0.0026469976 0.0022702843 -0.0033471785 0.0010705198 0.0006818983 -0.0031534408 -0.001199484 0.0026825347 -0.0039060432 0.0036570125 -0.0034128572 0.0031719452 0.0031247481 -0.0001666162 -0.003624057 -0.0008497064 0.0029751738 0.0007899139 -0.002018597 0.0031891575 -0.0037149133 -0.0033895434 0.003804933 -0.003237349 -0.00239585 -0.00032780878 0.0024463297 -0.0009878947 0.003313213 -0.0034861623 0.002784416 -0.0029800776 0.00033417027 -0.00085429335
v 0.002005625 -0.0007721944 -0.0032114284 -0.003200601 -0.00036071544 0.0016719663 0.0021984244 3.1187683e-05 -0.0021692317 0.0011821272 -0.00028758837 -0.0022758532 0.0017024383 -0.002073506 -0.0009417324 -0.002420569 -0.0037906687 0.0014942411 -0.0037201135 -0.0029994566 -0.0026543937 0.00088006817 -0.00033110692 -0.0022000086 0.0015608085 0.003866785 0.0015607419 0.00040574832 -0.0023703973 -0.0022032089 -0.0025776473 -0.00030724655 0.0011662301 0.0014863558 0.0019060271 0.0005535684 -0.0023487723 -0.0034024122 0.0017245555 -0.00082653 -0.0010644826 0.0025184962 0.0016059051 0.002476933 -0.00022014783 0.00015555263 0.0020395564 -0.0015433875 0.00297266 -0.0019831092 0.00080793694 -0.0012115041 0.0010267448 -0.0038572422 0.0032476922 0.0010591944 0.00183405 -0.0028210205 -0.0020395736 0.0015060101 -0.003485902 -0.0025620218 -0.0006233453 -0.00027134529 0.003902365 0.0014884736 0.0027215304 -0.0036340838 0.0006197148 -0.0015208966 -0.0028668165 -0.0010697138 -0.00257146 0.00072742935 -0.0005019496 0.0022251802 -0.00043998755 -0.00061469804 -3.6486184e-05 -0.0013907804 -0.0018547513 0.0005496676 0.0031241763 -0.0013555258 -0.00071997277 -0.0015321168 -0.0025054612 -0.0007691138 0.0034184156 -0.0022569266 -0.0034009833 0.0034517609 -0.0038123697 -0.002449781 -0.003286413 0.0013491906 -0.003333614 0.0012055633 -0.0037195883 -0.0016428701 -0.00029274923 -0.0022786749 0.0021759695 -0.003787042 -0.0017444931 0.0019036932 -0.002581951 -0.0005568542 0.0020727403 -0.00011688264 -0.000111477384 0.00037987615 -0.001830186 -0.0032436543 0.0009234143 0.0022725477 0.00064022833 0.001364745 0.0037705395 -0.00033581906 -0.003327667 0.0007476959 -0.002207643 0.0019329604 -0.0028436065 -0.0017789123 -0.000871183 0.00040968065
